digraph Tree {
node [shape=box, style="filled, rounded", color="black", fontname=helvetica] ;
edge [fontname=helvetica] ;
0 [label="Title_1 <= 0.5\ngini = 0.472\nsamples = 888\nvalue = [549, 339]\nclass = 0", fillcolor="#f5cfb3"] ;
1 [label="Pclass_Family_9 <= 0.5\ngini = 0.422\nsamples = 373\nvalue = [113, 260]\nclass = 1", fillcolor="#8fc8f0"] ;
0 -> 1 [labeldistance=2.5, labelangle=45, headlabel="True"] ;
2 [label="Pclass_3 <= 0.5\ngini = 0.343\nsamples = 328\nvalue = [72, 256]\nclass = 1", fillcolor="#71b9ec"] ;
1 -> 2 ;
3 [label="Title_5 <= 0.5\ngini = 0.21\nsamples = 201\nvalue = [24, 177]\nclass = 1", fillcolor="#54aae9"] ;
2 -> 3 ;
4 [label="Fare_Title_4.0 <= 0.5\ngini = 0.096\nsamples = 178\nvalue = [9, 169]\nclass = 1", fillcolor="#44a2e6"] ;
3 -> 4 ;
5 [label="Embarked_1 <= 0.5\ngini = 0.087\nsamples = 175\nvalue = [8, 167]\nclass = 1", fillcolor="#42a2e6"] ;
4 -> 5 ;
6 [label="Age_5.0 <= 0.5\ngini = 0.038\nsamples = 52\nvalue = [1, 51]\nclass = 1", fillcolor="#3d9fe6"] ;
5 -> 6 ;
7 [label="gini = 0.0\nsamples = 43\nvalue = [0, 43]\nclass = 1", fillcolor="#399de5"] ;
6 -> 7 ;
8 [label="Cabin_9 <= 0.5\ngini = 0.198\nsamples = 9\nvalue = [1, 8]\nclass = 1", fillcolor="#52a9e8"] ;
6 -> 8 ;
9 [label="gini = 0.219\nsamples = 8\nvalue = [1, 7]\nclass = 1", fillcolor="#55abe9"] ;
8 -> 9 ;
10 [label="gini = 0.0\nsamples = 1\nvalue = [0, 1]\nclass = 1", fillcolor="#399de5"] ;
8 -> 10 ;
11 [label="Age_3.0 <= 0.5\ngini = 0.107\nsamples = 123\nvalue = [7, 116]\nclass = 1", fillcolor="#45a3e7"] ;
5 -> 11 ;
12 [label="Age_1.0 <= 0.5\ngini = 0.07\nsamples = 82\nvalue = [3, 79]\nclass = 1", fillcolor="#41a1e6"] ;
11 -> 12 ;
13 [label="Cabin_9 <= 0.5\ngini = 0.057\nsamples = 68\nvalue = [2, 66]\nclass = 1", fillcolor="#3fa0e6"] ;
12 -> 13 ;
14 [label="gini = 0.0\nsamples = 33\nvalue = [0, 33]\nclass = 1", fillcolor="#399de5"] ;
13 -> 14 ;
15 [label="Age_4.0 <= 0.5\ngini = 0.108\nsamples = 35\nvalue = [2, 33]\nclass = 1", fillcolor="#45a3e7"] ;
13 -> 15 ;
16 [label="gini = 0.0\nsamples = 13\nvalue = [0, 13]\nclass = 1", fillcolor="#399de5"] ;
15 -> 16 ;
17 [label="gini = 0.165\nsamples = 22\nvalue = [2, 20]\nclass = 1", fillcolor="#4da7e8"] ;
15 -> 17 ;
18 [label="Cabin_9 <= 0.5\ngini = 0.133\nsamples = 14\nvalue = [1, 13]\nclass = 1", fillcolor="#48a5e7"] ;
12 -> 18 ;
19 [label="gini = 0.245\nsamples = 7\nvalue = [1, 6]\nclass = 1", fillcolor="#5aade9"] ;
18 -> 19 ;
20 [label="gini = 0.0\nsamples = 7\nvalue = [0, 7]\nclass = 1", fillcolor="#399de5"] ;
18 -> 20 ;
21 [label="Pclass_Family_3 <= 0.5\ngini = 0.176\nsamples = 41\nvalue = [4, 37]\nclass = 1", fillcolor="#4ea8e8"] ;
11 -> 21 ;
22 [label="Fare_2.0 <= 0.5\ngini = 0.184\nsamples = 39\nvalue = [4, 35]\nclass = 1", fillcolor="#50a8e8"] ;
21 -> 22 ;
23 [label="Cabin_9 <= 0.5\ngini = 0.193\nsamples = 37\nvalue = [4, 33]\nclass = 1", fillcolor="#51a9e8"] ;
22 -> 23 ;
24 [label="gini = 0.165\nsamples = 11\nvalue = [1, 10]\nclass = 1", fillcolor="#4da7e8"] ;
23 -> 24 ;
25 [label="gini = 0.204\nsamples = 26\nvalue = [3, 23]\nclass = 1", fillcolor="#53aae8"] ;
23 -> 25 ;
26 [label="gini = 0.0\nsamples = 2\nvalue = [0, 2]\nclass = 1", fillcolor="#399de5"] ;
22 -> 26 ;
27 [label="gini = 0.0\nsamples = 2\nvalue = [0, 2]\nclass = 1", fillcolor="#399de5"] ;
21 -> 27 ;
28 [label="Age_5.0 <= 0.5\ngini = 0.444\nsamples = 3\nvalue = [1, 2]\nclass = 1", fillcolor="#9ccef2"] ;
4 -> 28 ;
29 [label="gini = 0.0\nsamples = 2\nvalue = [0, 2]\nclass = 1", fillcolor="#399de5"] ;
28 -> 29 ;
30 [label="gini = 0.0\nsamples = 1\nvalue = [1, 0]\nclass = 0", fillcolor="#e58139"] ;
28 -> 30 ;
31 [label="Cabin_9 <= 0.5\ngini = 0.454\nsamples = 23\nvalue = [15, 8]\nclass = 0", fillcolor="#f3c4a3"] ;
3 -> 31 ;
32 [label="Age_5.0 <= 0.5\ngini = 0.42\nsamples = 10\nvalue = [3, 7]\nclass = 1", fillcolor="#8ec7f0"] ;
31 -> 32 ;
33 [label="Embarked_2 <= 0.5\ngini = 0.5\nsamples = 6\nvalue = [3, 3]\nclass = 0", fillcolor="#ffffff"] ;
32 -> 33 ;
34 [label="Embarked_1 <= 0.5\ngini = 0.375\nsamples = 4\nvalue = [3, 1]\nclass = 0", fillcolor="#eeab7b"] ;
33 -> 34 ;
35 [label="gini = 0.0\nsamples = 1\nvalue = [1, 0]\nclass = 0", fillcolor="#e58139"] ;
34 -> 35 ;
36 [label="Age_6.0 <= 0.5\ngini = 0.444\nsamples = 3\nvalue = [2, 1]\nclass = 0", fillcolor="#f2c09c"] ;
34 -> 36 ;
37 [label="gini = 0.5\nsamples = 2\nvalue = [1, 1]\nclass = 0", fillcolor="#ffffff"] ;
36 -> 37 ;
38 [label="gini = 0.0\nsamples = 1\nvalue = [1, 0]\nclass = 0", fillcolor="#e58139"] ;
36 -> 38 ;
39 [label="gini = 0.0\nsamples = 2\nvalue = [0, 2]\nclass = 1", fillcolor="#399de5"] ;
33 -> 39 ;
40 [label="gini = 0.0\nsamples = 4\nvalue = [0, 4]\nclass = 1", fillcolor="#399de5"] ;
32 -> 40 ;
41 [label="Age_5.0 <= 0.5\ngini = 0.142\nsamples = 13\nvalue = [12, 1]\nclass = 0", fillcolor="#e78c49"] ;
31 -> 41 ;
42 [label="gini = 0.0\nsamples = 7\nvalue = [7, 0]\nclass = 0", fillcolor="#e58139"] ;
41 -> 42 ;
43 [label="Embarked_1 <= 0.5\ngini = 0.278\nsamples = 6\nvalue = [5, 1]\nclass = 0", fillcolor="#ea9a61"] ;
41 -> 43 ;
44 [label="gini = 0.0\nsamples = 1\nvalue = [1, 0]\nclass = 0", fillcolor="#e58139"] ;
43 -> 44 ;
45 [label="gini = 0.32\nsamples = 5\nvalue = [4, 1]\nclass = 0", fillcolor="#eca06a"] ;
43 -> 45 ;
46 [label="Age_1.0 <= 0.5\ngini = 0.47\nsamples = 127\nvalue = [48, 79]\nclass = 1", fillcolor="#b1d9f5"] ;
2 -> 46 ;
47 [label="Embarked_1 <= 0.5\ngini = 0.487\nsamples = 112\nvalue = [47, 65]\nclass = 1", fillcolor="#c8e4f8"] ;
46 -> 47 ;
48 [label="Fare_2.0 <= 0.5\ngini = 0.422\nsamples = 53\nvalue = [16, 37]\nclass = 1", fillcolor="#8fc7f0"] ;
47 -> 48 ;
49 [label="Age_3.0 <= 0.5\ngini = 0.49\nsamples = 21\nvalue = [9, 12]\nclass = 1", fillcolor="#cee6f8"] ;
48 -> 49 ;
50 [label="Pclass_Family_3 <= 0.5\ngini = 0.278\nsamples = 6\nvalue = [5, 1]\nclass = 0", fillcolor="#ea9a61"] ;
49 -> 50 ;
51 [label="Age_4.0 <= 0.5\ngini = 0.32\nsamples = 5\nvalue = [4, 1]\nclass = 0", fillcolor="#eca06a"] ;
50 -> 51 ;
52 [label="gini = 0.375\nsamples = 4\nvalue = [3, 1]\nclass = 0", fillcolor="#eeab7b"] ;
51 -> 52 ;
53 [label="gini = 0.0\nsamples = 1\nvalue = [1, 0]\nclass = 0", fillcolor="#e58139"] ;
51 -> 53 ;
54 [label="gini = 0.0\nsamples = 1\nvalue = [1, 0]\nclass = 0", fillcolor="#e58139"] ;
50 -> 54 ;
55 [label="Sex_Cabin_18 <= 0.5\ngini = 0.391\nsamples = 15\nvalue = [4, 11]\nclass = 1", fillcolor="#81c1ee"] ;
49 -> 55 ;
56 [label="Embarked_2 <= 0.5\ngini = 0.426\nsamples = 13\nvalue = [4, 9]\nclass = 1", fillcolor="#91c9f1"] ;
55 -> 56 ;
57 [label="gini = 0.278\nsamples = 6\nvalue = [1, 5]\nclass = 1", fillcolor="#61b1ea"] ;
56 -> 57 ;
58 [label="Cabin_9 <= 0.5\ngini = 0.49\nsamples = 7\nvalue = [3, 4]\nclass = 1", fillcolor="#cee6f8"] ;
56 -> 58 ;
59 [label="gini = 0.0\nsamples = 1\nvalue = [0, 1]\nclass = 1", fillcolor="#399de5"] ;
58 -> 59 ;
60 [label="gini = 0.5\nsamples = 6\nvalue = [3, 3]\nclass = 0", fillcolor="#ffffff"] ;
58 -> 60 ;
61 [label="gini = 0.0\nsamples = 2\nvalue = [0, 2]\nclass = 1", fillcolor="#399de5"] ;
55 -> 61 ;
62 [label="Embarked_2 <= 0.5\ngini = 0.342\nsamples = 32\nvalue = [7, 25]\nclass = 1", fillcolor="#70b8ec"] ;
48 -> 62 ;
63 [label="Pclass_Family_3 <= 0.5\ngini = 0.393\nsamples = 26\nvalue = [7, 19]\nclass = 1", fillcolor="#82c1ef"] ;
62 -> 63 ;
64 [label="gini = 0.0\nsamples = 1\nvalue = [1, 0]\nclass = 0", fillcolor="#e58139"] ;
63 -> 64 ;
65 [label="Age_3.0 <= 0.5\ngini = 0.365\nsamples = 25\nvalue = [6, 19]\nclass = 1", fillcolor="#78bced"] ;
63 -> 65 ;
66 [label="gini = 0.375\nsamples = 4\nvalue = [1, 3]\nclass = 1", fillcolor="#7bbeee"] ;
65 -> 66 ;
67 [label="gini = 0.363\nsamples = 21\nvalue = [5, 16]\nclass = 1", fillcolor="#77bced"] ;
65 -> 67 ;
68 [label="gini = 0.0\nsamples = 6\nvalue = [0, 6]\nclass = 1", fillcolor="#399de5"] ;
62 -> 68 ;
69 [label="Sex_Cabin_18 <= 0.5\ngini = 0.499\nsamples = 59\nvalue = [31, 28]\nclass = 0", fillcolor="#fcf3ec"] ;
47 -> 69 ;
70 [label="Cabin_9 <= 0.5\ngini = 0.496\nsamples = 57\nvalue = [31, 26]\nclass = 0", fillcolor="#fbebdf"] ;
69 -> 70 ;
71 [label="Fare_2.0 <= 0.5\ngini = 0.375\nsamples = 4\nvalue = [1, 3]\nclass = 1", fillcolor="#7bbeee"] ;
70 -> 71 ;
72 [label="gini = 0.0\nsamples = 3\nvalue = [0, 3]\nclass = 1", fillcolor="#399de5"] ;
71 -> 72 ;
73 [label="gini = 0.0\nsamples = 1\nvalue = [1, 0]\nclass = 0", fillcolor="#e58139"] ;
71 -> 73 ;
74 [label="Fare_Title_4.0 <= 0.5\ngini = 0.491\nsamples = 53\nvalue = [30, 23]\nclass = 0", fillcolor="#f9e2d1"] ;
70 -> 74 ;
75 [label="Fare_2.0 <= 0.5\ngini = 0.482\nsamples = 47\nvalue = [28, 19]\nclass = 0", fillcolor="#f7d7bf"] ;
74 -> 75 ;
76 [label="Pclass_Family_3 <= 0.5\ngini = 0.494\nsamples = 18\nvalue = [10, 8]\nclass = 0", fillcolor="#fae6d7"] ;
75 -> 76 ;
77 [label="Age_4.0 <= 0.5\ngini = 0.484\nsamples = 17\nvalue = [10, 7]\nclass = 0", fillcolor="#f7d9c4"] ;
76 -> 77 ;
78 [label="Age_3.0 <= 0.5\ngini = 0.444\nsamples = 12\nvalue = [8, 4]\nclass = 0", fillcolor="#f2c09c"] ;
77 -> 78 ;
79 [label="gini = 0.0\nsamples = 3\nvalue = [3, 0]\nclass = 0", fillcolor="#e58139"] ;
78 -> 79 ;
80 [label="gini = 0.494\nsamples = 9\nvalue = [5, 4]\nclass = 0", fillcolor="#fae6d7"] ;
78 -> 80 ;
81 [label="gini = 0.48\nsamples = 5\nvalue = [2, 3]\nclass = 1", fillcolor="#bddef6"] ;
77 -> 81 ;
82 [label="gini = 0.0\nsamples = 1\nvalue = [0, 1]\nclass = 1", fillcolor="#399de5"] ;
76 -> 82 ;
83 [label="Age_4.0 <= 0.5\ngini = 0.471\nsamples = 29\nvalue = [18, 11]\nclass = 0", fillcolor="#f5ceb2"] ;
75 -> 83 ;
84 [label="Pclass_Family_3 <= 0.5\ngini = 0.483\nsamples = 27\nvalue = [16, 11]\nclass = 0", fillcolor="#f7d8c1"] ;
83 -> 84 ;
85 [label="gini = 0.375\nsamples = 4\nvalue = [3, 1]\nclass = 0", fillcolor="#eeab7b"] ;
84 -> 85 ;
86 [label="Age_3.0 <= 0.5\ngini = 0.491\nsamples = 23\nvalue = [13, 10]\nclass = 0", fillcolor="#f9e2d1"] ;
84 -> 86 ;
87 [label="gini = 0.5\nsamples = 4\nvalue = [2, 2]\nclass = 0", fillcolor="#ffffff"] ;
86 -> 87 ;
88 [label="gini = 0.488\nsamples = 19\nvalue = [11, 8]\nclass = 0", fillcolor="#f8ddc9"] ;
86 -> 88 ;
89 [label="gini = 0.0\nsamples = 2\nvalue = [2, 0]\nclass = 0", fillcolor="#e58139"] ;
83 -> 89 ;
90 [label="Age_4.0 <= 0.5\ngini = 0.444\nsamples = 6\nvalue = [2, 4]\nclass = 1", fillcolor="#9ccef2"] ;
74 -> 90 ;
91 [label="Pclass_Family_3 <= 0.5\ngini = 0.32\nsamples = 5\nvalue = [1, 4]\nclass = 1", fillcolor="#6ab6ec"] ;
90 -> 91 ;
92 [label="gini = 0.0\nsamples = 2\nvalue = [0, 2]\nclass = 1", fillcolor="#399de5"] ;
91 -> 92 ;
93 [label="Age_5.0 <= 0.5\ngini = 0.444\nsamples = 3\nvalue = [1, 2]\nclass = 1", fillcolor="#9ccef2"] ;
91 -> 93 ;
94 [label="gini = 0.5\nsamples = 2\nvalue = [1, 1]\nclass = 0", fillcolor="#ffffff"] ;
93 -> 94 ;
95 [label="gini = 0.0\nsamples = 1\nvalue = [0, 1]\nclass = 1", fillcolor="#399de5"] ;
93 -> 95 ;
96 [label="gini = 0.0\nsamples = 1\nvalue = [1, 0]\nclass = 0", fillcolor="#e58139"] ;
90 -> 96 ;
97 [label="gini = 0.0\nsamples = 2\nvalue = [0, 2]\nclass = 1", fillcolor="#399de5"] ;
69 -> 97 ;
98 [label="Cabin_9 <= 0.5\ngini = 0.124\nsamples = 15\nvalue = [1, 14]\nclass = 1", fillcolor="#47a4e7"] ;
46 -> 98 ;
99 [label="Fare_2.0 <= 0.5\ngini = 0.5\nsamples = 2\nvalue = [1, 1]\nclass = 0", fillcolor="#ffffff"] ;
98 -> 99 ;
100 [label="gini = 0.0\nsamples = 1\nvalue = [0, 1]\nclass = 1", fillcolor="#399de5"] ;
99 -> 100 ;
101 [label="gini = 0.0\nsamples = 1\nvalue = [1, 0]\nclass = 0", fillcolor="#e58139"] ;
99 -> 101 ;
102 [label="gini = 0.0\nsamples = 13\nvalue = [0, 13]\nclass = 1", fillcolor="#399de5"] ;
98 -> 102 ;
103 [label="Fare_2.0 <= 0.5\ngini = 0.162\nsamples = 45\nvalue = [41, 4]\nclass = 0", fillcolor="#e88d4c"] ;
1 -> 103 ;
104 [label="Age_1.0 <= 0.5\ngini = 0.127\nsamples = 44\nvalue = [41, 3]\nclass = 0", fillcolor="#e78a47"] ;
103 -> 104 ;
105 [label="Age_4.0 <= 0.5\ngini = 0.062\nsamples = 31\nvalue = [30, 1]\nclass = 0", fillcolor="#e68540"] ;
104 -> 105 ;
106 [label="gini = 0.0\nsamples = 24\nvalue = [24, 0]\nclass = 0", fillcolor="#e58139"] ;
105 -> 106 ;
107 [label="Embarked_1 <= 0.5\ngini = 0.245\nsamples = 7\nvalue = [6, 1]\nclass = 0", fillcolor="#e9965a"] ;
105 -> 107 ;
108 [label="gini = 0.0\nsamples = 1\nvalue = [1, 0]\nclass = 0", fillcolor="#e58139"] ;
107 -> 108 ;
109 [label="gini = 0.278\nsamples = 6\nvalue = [5, 1]\nclass = 0", fillcolor="#ea9a61"] ;
107 -> 109 ;
110 [label="Embarked_1 <= 0.5\ngini = 0.26\nsamples = 13\nvalue = [11, 2]\nclass = 0", fillcolor="#ea985d"] ;
104 -> 110 ;
111 [label="gini = 0.0\nsamples = 2\nvalue = [2, 0]\nclass = 0", fillcolor="#e58139"] ;
110 -> 111 ;
112 [label="Sex_Cabin_18 <= 0.5\ngini = 0.298\nsamples = 11\nvalue = [9, 2]\nclass = 0", fillcolor="#eb9d65"] ;
110 -> 112 ;
113 [label="gini = 0.375\nsamples = 4\nvalue = [3, 1]\nclass = 0", fillcolor="#eeab7b"] ;
112 -> 113 ;
114 [label="gini = 0.245\nsamples = 7\nvalue = [6, 1]\nclass = 0", fillcolor="#e9965a"] ;
112 -> 114 ;
115 [label="gini = 0.0\nsamples = 1\nvalue = [0, 1]\nclass = 1", fillcolor="#399de5"] ;
103 -> 115 ;
116 [label="Sex_Cabin_18 <= 0.5\ngini = 0.26\nsamples = 515\nvalue = [436, 79]\nclass = 0", fillcolor="#ea985d"] ;
0 -> 116 [labeldistance=2.5, labelangle=-45, headlabel="False"] ;
117 [label="Age_5.0 <= 0.5\ngini = 0.456\nsamples = 91\nvalue = [59, 32]\nclass = 0", fillcolor="#f3c5a4"] ;
116 -> 117 ;
118 [label="Pclass_Family_3 <= 0.5\ngini = 0.477\nsamples = 74\nvalue = [45, 29]\nclass = 0", fillcolor="#f6d2b9"] ;
117 -> 118 ;
119 [label="Age_6.0 <= 0.5\ngini = 0.484\nsamples = 68\nvalue = [40, 28]\nclass = 0", fillcolor="#f7d9c4"] ;
118 -> 119 ;
120 [label="Embarked_2 <= 0.5\ngini = 0.488\nsamples = 64\nvalue = [37, 27]\nclass = 0", fillcolor="#f8ddc9"] ;
119 -> 120 ;
121 [label="Fare_Title_4.0 <= 0.5\ngini = 0.476\nsamples = 46\nvalue = [28, 18]\nclass = 0", fillcolor="#f6d2b8"] ;
120 -> 121 ;
122 [label="Age_3.0 <= 0.5\ngini = 0.49\nsamples = 21\nvalue = [12, 9]\nclass = 0", fillcolor="#f8e0ce"] ;
121 -> 122 ;
123 [label="gini = 0.488\nsamples = 19\nvalue = [11, 8]\nclass = 0", fillcolor="#f8ddc9"] ;
122 -> 123 ;
124 [label="gini = 0.5\nsamples = 2\nvalue = [1, 1]\nclass = 0", fillcolor="#ffffff"] ;
122 -> 124 ;
125 [label="Age_3.0 <= 0.5\ngini = 0.461\nsamples = 25\nvalue = [16, 9]\nclass = 0", fillcolor="#f4c8a8"] ;
121 -> 125 ;
126 [label="gini = 0.457\nsamples = 17\nvalue = [11, 6]\nclass = 0", fillcolor="#f3c6a5"] ;
125 -> 126 ;
127 [label="gini = 0.469\nsamples = 8\nvalue = [5, 3]\nclass = 0", fillcolor="#f5cdb0"] ;
125 -> 127 ;
128 [label="Fare_Title_4.0 <= 0.5\ngini = 0.5\nsamples = 18\nvalue = [9, 9]\nclass = 0", fillcolor="#ffffff"] ;
120 -> 128 ;
129 [label="Age_3.0 <= 0.5\ngini = 0.444\nsamples = 9\nvalue = [6, 3]\nclass = 0", fillcolor="#f2c09c"] ;
128 -> 129 ;
130 [label="Age_4.0 <= 0.5\ngini = 0.48\nsamples = 5\nvalue = [3, 2]\nclass = 0", fillcolor="#f6d5bd"] ;
129 -> 130 ;
131 [label="gini = 0.5\nsamples = 2\nvalue = [1, 1]\nclass = 0", fillcolor="#ffffff"] ;
130 -> 131 ;
132 [label="gini = 0.444\nsamples = 3\nvalue = [2, 1]\nclass = 0", fillcolor="#f2c09c"] ;
130 -> 132 ;
133 [label="gini = 0.375\nsamples = 4\nvalue = [3, 1]\nclass = 0", fillcolor="#eeab7b"] ;
129 -> 133 ;
134 [label="Age_4.0 <= 0.5\ngini = 0.444\nsamples = 9\nvalue = [3, 6]\nclass = 1", fillcolor="#9ccef2"] ;
128 -> 134 ;
135 [label="gini = 0.32\nsamples = 5\nvalue = [1, 4]\nclass = 1", fillcolor="#6ab6ec"] ;
134 -> 135 ;
136 [label="gini = 0.5\nsamples = 4\nvalue = [2, 2]\nclass = 0", fillcolor="#ffffff"] ;
134 -> 136 ;
137 [label="Embarked_1 <= 0.5\ngini = 0.375\nsamples = 4\nvalue = [3, 1]\nclass = 0", fillcolor="#eeab7b"] ;
119 -> 137 ;
138 [label="gini = 0.0\nsamples = 2\nvalue = [2, 0]\nclass = 0", fillcolor="#e58139"] ;
137 -> 138 ;
139 [label="gini = 0.5\nsamples = 2\nvalue = [1, 1]\nclass = 0", fillcolor="#ffffff"] ;
137 -> 139 ;
140 [label="Pclass_3 <= 0.5\ngini = 0.278\nsamples = 6\nvalue = [5, 1]\nclass = 0", fillcolor="#ea9a61"] ;
118 -> 140 ;
141 [label="gini = 0.0\nsamples = 1\nvalue = [1, 0]\nclass = 0", fillcolor="#e58139"] ;
140 -> 141 ;
142 [label="Age_3.0 <= 0.5\ngini = 0.32\nsamples = 5\nvalue = [4, 1]\nclass = 0", fillcolor="#eca06a"] ;
140 -> 142 ;
143 [label="gini = 0.0\nsamples = 1\nvalue = [1, 0]\nclass = 0", fillcolor="#e58139"] ;
142 -> 143 ;
144 [label="Embarked_1 <= 0.5\ngini = 0.375\nsamples = 4\nvalue = [3, 1]\nclass = 0", fillcolor="#eeab7b"] ;
142 -> 144 ;
145 [label="gini = 0.0\nsamples = 1\nvalue = [1, 0]\nclass = 0", fillcolor="#e58139"] ;
144 -> 145 ;
146 [label="gini = 0.444\nsamples = 3\nvalue = [2, 1]\nclass = 0", fillcolor="#f2c09c"] ;
144 -> 146 ;
147 [label="Embarked_2 <= 0.5\ngini = 0.291\nsamples = 17\nvalue = [14, 3]\nclass = 0", fillcolor="#eb9c63"] ;
117 -> 147 ;
148 [label="Fare_Title_4.0 <= 0.5\ngini = 0.18\nsamples = 10\nvalue = [9, 1]\nclass = 0", fillcolor="#e88f4f"] ;
147 -> 148 ;
149 [label="Pclass_Family_3 <= 0.5\ngini = 0.444\nsamples = 3\nvalue = [2, 1]\nclass = 0", fillcolor="#f2c09c"] ;
148 -> 149 ;
150 [label="gini = 0.5\nsamples = 2\nvalue = [1, 1]\nclass = 0", fillcolor="#ffffff"] ;
149 -> 150 ;
151 [label="gini = 0.0\nsamples = 1\nvalue = [1, 0]\nclass = 0", fillcolor="#e58139"] ;
149 -> 151 ;
152 [label="gini = 0.0\nsamples = 7\nvalue = [7, 0]\nclass = 0", fillcolor="#e58139"] ;
148 -> 152 ;
153 [label="Fare_Title_4.0 <= 0.5\ngini = 0.408\nsamples = 7\nvalue = [5, 2]\nclass = 0", fillcolor="#efb388"] ;
147 -> 153 ;
154 [label="gini = 0.0\nsamples = 4\nvalue = [4, 0]\nclass = 0", fillcolor="#e58139"] ;
153 -> 154 ;
155 [label="gini = 0.444\nsamples = 3\nvalue = [1, 2]\nclass = 1", fillcolor="#9ccef2"] ;
153 -> 155 ;
156 [label="Age_3.0 <= 0.5\ngini = 0.197\nsamples = 424\nvalue = [377, 47]\nclass = 0", fillcolor="#e89152"] ;
116 -> 156 ;
157 [label="Pclass_3 <= 0.5\ngini = 0.138\nsamples = 147\nvalue = [136, 11]\nclass = 0", fillcolor="#e78b49"] ;
156 -> 157 ;
158 [label="Fare_Title_4.0 <= 0.5\ngini = 0.191\nsamples = 56\nvalue = [50, 6]\nclass = 0", fillcolor="#e89051"] ;
157 -> 158 ;
159 [label="Age_4.0 <= 0.5\ngini = 0.223\nsamples = 47\nvalue = [41, 6]\nclass = 0", fillcolor="#e99356"] ;
158 -> 159 ;
160 [label="Fare_2.0 <= 0.5\ngini = 0.117\nsamples = 16\nvalue = [15, 1]\nclass = 0", fillcolor="#e78946"] ;
159 -> 160 ;
161 [label="gini = 0.0\nsamples = 10\nvalue = [10, 0]\nclass = 0", fillcolor="#e58139"] ;
160 -> 161 ;
162 [label="Age_5.0 <= 0.5\ngini = 0.278\nsamples = 6\nvalue = [5, 1]\nclass = 0", fillcolor="#ea9a61"] ;
160 -> 162 ;
163 [label="gini = 0.0\nsamples = 5\nvalue = [5, 0]\nclass = 0", fillcolor="#e58139"] ;
162 -> 163 ;
164 [label="gini = 0.0\nsamples = 1\nvalue = [0, 1]\nclass = 1", fillcolor="#399de5"] ;
162 -> 164 ;
165 [label="Fare_2.0 <= 0.5\ngini = 0.271\nsamples = 31\nvalue = [26, 5]\nclass = 0", fillcolor="#ea995f"] ;
159 -> 165 ;
166 [label="Embarked_1 <= 0.5\ngini = 0.285\nsamples = 29\nvalue = [24, 5]\nclass = 0", fillcolor="#ea9b62"] ;
165 -> 166 ;
167 [label="gini = 0.375\nsamples = 4\nvalue = [3, 1]\nclass = 0", fillcolor="#eeab7b"] ;
166 -> 167 ;
168 [label="gini = 0.269\nsamples = 25\nvalue = [21, 4]\nclass = 0", fillcolor="#ea995f"] ;
166 -> 168 ;
169 [label="gini = 0.0\nsamples = 2\nvalue = [2, 0]\nclass = 0", fillcolor="#e58139"] ;
165 -> 169 ;
170 [label="gini = 0.0\nsamples = 9\nvalue = [9, 0]\nclass = 0", fillcolor="#e58139"] ;
158 -> 170 ;
171 [label="Pclass_Family_3 <= 0.5\ngini = 0.104\nsamples = 91\nvalue = [86, 5]\nclass = 0", fillcolor="#e78845"] ;
157 -> 171 ;
172 [label="gini = 0.0\nsamples = 24\nvalue = [24, 0]\nclass = 0", fillcolor="#e58139"] ;
171 -> 172 ;
173 [label="Embarked_1 <= 0.5\ngini = 0.138\nsamples = 67\nvalue = [62, 5]\nclass = 0", fillcolor="#e78b49"] ;
171 -> 173 ;
174 [label="gini = 0.0\nsamples = 10\nvalue = [10, 0]\nclass = 0", fillcolor="#e58139"] ;
173 -> 174 ;
175 [label="Age_5.0 <= 0.5\ngini = 0.16\nsamples = 57\nvalue = [52, 5]\nclass = 0", fillcolor="#e88d4c"] ;
173 -> 175 ;
176 [label="Fare_2.0 <= 0.5\ngini = 0.183\nsamples = 49\nvalue = [44, 5]\nclass = 0", fillcolor="#e88f50"] ;
175 -> 176 ;
177 [label="gini = 0.0\nsamples = 2\nvalue = [2, 0]\nclass = 0", fillcolor="#e58139"] ;
176 -> 177 ;
178 [label="Age_4.0 <= 0.5\ngini = 0.19\nsamples = 47\nvalue = [42, 5]\nclass = 0", fillcolor="#e89051"] ;
176 -> 178 ;
179 [label="Age_6.0 <= 0.5\ngini = 0.231\nsamples = 15\nvalue = [13, 2]\nclass = 0", fillcolor="#e99457"] ;
178 -> 179 ;
180 [label="gini = 0.245\nsamples = 14\nvalue = [12, 2]\nclass = 0", fillcolor="#e9965a"] ;
179 -> 180 ;
181 [label="gini = 0.0\nsamples = 1\nvalue = [1, 0]\nclass = 0", fillcolor="#e58139"] ;
179 -> 181 ;
182 [label="gini = 0.17\nsamples = 32\nvalue = [29, 3]\nclass = 0", fillcolor="#e88e4d"] ;
178 -> 182 ;
183 [label="gini = 0.0\nsamples = 8\nvalue = [8, 0]\nclass = 0", fillcolor="#e58139"] ;
175 -> 183 ;
184 [label="Fare_Title_4.0 <= 0.5\ngini = 0.226\nsamples = 277\nvalue = [241, 36]\nclass = 0", fillcolor="#e99457"] ;
156 -> 184 ;
185 [label="Embarked_2 <= 0.5\ngini = 0.206\nsamples = 257\nvalue = [227, 30]\nclass = 0", fillcolor="#e89253"] ;
184 -> 185 ;
186 [label="Pclass_Family_3 <= 0.5\ngini = 0.186\nsamples = 221\nvalue = [198, 23]\nclass = 0", fillcolor="#e89050"] ;
185 -> 186 ;
187 [label="Embarked_1 <= 0.5\ngini = 0.2\nsamples = 62\nvalue = [55, 7]\nclass = 0", fillcolor="#e89152"] ;
186 -> 187 ;
188 [label="Fare_2.0 <= 0.5\ngini = 0.32\nsamples = 5\nvalue = [4, 1]\nclass = 0", fillcolor="#eca06a"] ;
187 -> 188 ;
189 [label="gini = 0.375\nsamples = 4\nvalue = [3, 1]\nclass = 0", fillcolor="#eeab7b"] ;
188 -> 189 ;
190 [label="gini = 0.0\nsamples = 1\nvalue = [1, 0]\nclass = 0", fillcolor="#e58139"] ;
188 -> 190 ;
191 [label="Fare_2.0 <= 0.5\ngini = 0.188\nsamples = 57\nvalue = [51, 6]\nclass = 0", fillcolor="#e89050"] ;
187 -> 191 ;
192 [label="Pclass_3 <= 0.5\ngini = 0.145\nsamples = 38\nvalue = [35, 3]\nclass = 0", fillcolor="#e78c4a"] ;
191 -> 192 ;
193 [label="gini = 0.198\nsamples = 27\nvalue = [24, 3]\nclass = 0", fillcolor="#e89152"] ;
192 -> 193 ;
194 [label="gini = 0.0\nsamples = 11\nvalue = [11, 0]\nclass = 0", fillcolor="#e58139"] ;
192 -> 194 ;
195 [label="Pclass_3 <= 0.5\ngini = 0.266\nsamples = 19\nvalue = [16, 3]\nclass = 0", fillcolor="#ea995e"] ;
191 -> 195 ;
196 [label="gini = 0.165\nsamples = 11\nvalue = [10, 1]\nclass = 0", fillcolor="#e88e4d"] ;
195 -> 196 ;
197 [label="gini = 0.375\nsamples = 8\nvalue = [6, 2]\nclass = 0", fillcolor="#eeab7b"] ;
195 -> 197 ;
198 [label="Embarked_1 <= 0.5\ngini = 0.181\nsamples = 159\nvalue = [143, 16]\nclass = 0", fillcolor="#e88f4f"] ;
186 -> 198 ;
199 [label="Fare_2.0 <= 0.5\ngini = 0.147\nsamples = 25\nvalue = [23, 2]\nclass = 0", fillcolor="#e78c4a"] ;
198 -> 199 ;
200 [label="gini = 0.0\nsamples = 2\nvalue = [2, 0]\nclass = 0", fillcolor="#e58139"] ;
199 -> 200 ;
201 [label="gini = 0.159\nsamples = 23\nvalue = [21, 2]\nclass = 0", fillcolor="#e78d4c"] ;
199 -> 201 ;
202 [label="Fare_2.0 <= 0.5\ngini = 0.187\nsamples = 134\nvalue = [120, 14]\nclass = 0", fillcolor="#e89050"] ;
198 -> 202 ;
203 [label="gini = 0.198\nsamples = 9\nvalue = [8, 1]\nclass = 0", fillcolor="#e89152"] ;
202 -> 203 ;
204 [label="gini = 0.186\nsamples = 125\nvalue = [112, 13]\nclass = 0", fillcolor="#e89050"] ;
202 -> 204 ;
205 [label="Fare_2.0 <= 0.5\ngini = 0.313\nsamples = 36\nvalue = [29, 7]\nclass = 0", fillcolor="#eb9f69"] ;
185 -> 205 ;
206 [label="Pclass_3 <= 0.5\ngini = 0.355\nsamples = 13\nvalue = [10, 3]\nclass = 0", fillcolor="#eda774"] ;
205 -> 206 ;
207 [label="gini = 0.278\nsamples = 6\nvalue = [5, 1]\nclass = 0", fillcolor="#ea9a61"] ;
206 -> 207 ;
208 [label="Pclass_Family_3 <= 0.5\ngini = 0.408\nsamples = 7\nvalue = [5, 2]\nclass = 0", fillcolor="#efb388"] ;
206 -> 208 ;
209 [label="gini = 0.375\nsamples = 4\nvalue = [3, 1]\nclass = 0", fillcolor="#eeab7b"] ;
208 -> 209 ;
210 [label="gini = 0.444\nsamples = 3\nvalue = [2, 1]\nclass = 0", fillcolor="#f2c09c"] ;
208 -> 210 ;
211 [label="gini = 0.287\nsamples = 23\nvalue = [19, 4]\nclass = 0", fillcolor="#ea9c63"] ;
205 -> 211 ;
212 [label="Pclass_Family_3 <= 0.5\ngini = 0.42\nsamples = 20\nvalue = [14, 6]\nclass = 0", fillcolor="#f0b78e"] ;
184 -> 212 ;
213 [label="Embarked_1 <= 0.5\ngini = 0.142\nsamples = 13\nvalue = [12, 1]\nclass = 0", fillcolor="#e78c49"] ;
212 -> 213 ;
214 [label="gini = 0.0\nsamples = 3\nvalue = [3, 0]\nclass = 0", fillcolor="#e58139"] ;
213 -> 214 ;
215 [label="Pclass_3 <= 0.5\ngini = 0.18\nsamples = 10\nvalue = [9, 1]\nclass = 0", fillcolor="#e88f4f"] ;
213 -> 215 ;
216 [label="gini = 0.245\nsamples = 7\nvalue = [6, 1]\nclass = 0", fillcolor="#e9965a"] ;
215 -> 216 ;
217 [label="gini = 0.0\nsamples = 3\nvalue = [3, 0]\nclass = 0", fillcolor="#e58139"] ;
215 -> 217 ;
218 [label="gini = 0.408\nsamples = 7\nvalue = [2, 5]\nclass = 1", fillcolor="#88c4ef"] ;
212 -> 218 ;
}